<?xml version="1.0"?>
<opencv_storage>
<!-- Created using Computer Vision System Toolbox(tm) for MATLAB(R) -->
<!-- Version 8.6.0.267246 (R2015b) -->
<!-- Compatible with OpenCV 2.4 -->
<cascade>
  <stageType>BOOST</stageType>
  <featureType>HAAR</featureType>
  <height>32</height>
  <width>48</width>
  <stageParams>
    <boostType>GAB</boostType>
    <minHitRate>9.9500000476837158e-01</minHitRate>
    <maxFalseAlarm>2.0000000298023224e-01</maxFalseAlarm>
    <weightTrimRate>9.4999999999999996e-01</weightTrimRate>
    <maxDepth>1</maxDepth>
    <maxWeakCount>100</maxWeakCount></stageParams>
  <featureParams>
    <maxCatCount>0</maxCatCount>
    <featSize>1</featSize>
    <mode>BASIC</mode></featureParams>
  <stageNum>4</stageNum>
  <stages>
    <!-- stage 0 -->
    <_>
      <maxWeakCount>3</maxWeakCount>
      <stageThreshold>-9.5347529649734497e-01</stageThreshold>
      <weakClassifiers>
        <_>
          <internalNodes>
            0 -1 20 7.3934138526965398e-06</internalNodes>
          <leafValues>
            -9.1841357946395874e-01 9.2295217514038086e-01</leafValues></_>
        <_>
          <internalNodes>
            0 -1 8 -3.4774471714626998e-05</internalNodes>
          <leafValues>
            8.8231343030929565e-01 -8.7293386459350586e-01</leafValues></_>
        <_>
          <internalNodes>
            0 -1 7 1.0064934940601233e-05</internalNodes>
          <leafValues>
            -8.4705525636672974e-01 8.3787214756011963e-01</leafValues></_></weakClassifiers></_>
    <!-- stage 1 -->
    <_>
      <maxWeakCount>5</maxWeakCount>
      <stageThreshold>-8.7606245279312134e-01</stageThreshold>
      <weakClassifiers>
        <_>
          <internalNodes>
            0 -1 2 -7.5394391387817450e-06</internalNodes>
          <leafValues>
            6.7614877223968506e-01 -8.8483762741088867e-01</leafValues></_>
        <_>
          <internalNodes>
            0 -1 0 -2.1254518069326878e-03</internalNodes>
          <leafValues>
            7.1878850460052490e-01 -7.5926929712295532e-01</leafValues></_>
        <_>
          <internalNodes>
            0 -1 17 9.9935841717524454e-06</internalNodes>
          <leafValues>
            -6.5857815742492676e-01 7.3931992053985596e-01</leafValues></_>
        <_>
          <internalNodes>
            0 -1 18 -8.2995666161878034e-06</internalNodes>
          <leafValues>
            8.6962938308715820e-01 -5.6396025419235229e-01</leafValues></_>
        <_>
          <internalNodes>
            0 -1 15 1.8309681763639674e-05</internalNodes>
          <leafValues>
            -6.7986392974853516e-01 5.9268474578857422e-01</leafValues></_></weakClassifiers></_>
    <!-- stage 2 -->
    <_>
      <maxWeakCount>6</maxWeakCount>
      <stageThreshold>-9.3449848890304565e-01</stageThreshold>
      <weakClassifiers>
        <_>
          <internalNodes>
            0 -1 13 2.3685555788688362e-05</internalNodes>
          <leafValues>
            -7.1375465393066406e-01 8.8822573423385620e-01</leafValues></_>
        <_>
          <internalNodes>
            0 -1 3 -9.9471025168895721e-04</internalNodes>
          <leafValues>
            7.8441345691680908e-01 -6.4744240045547485e-01</leafValues></_>
        <_>
          <internalNodes>
            0 -1 1 -3.2606485765427351e-03</internalNodes>
          <leafValues>
            8.0228149890899658e-01 -4.7145560383796692e-01</leafValues></_>
        <_>
          <internalNodes>
            0 -1 4 8.6979243860696442e-06</internalNodes>
          <leafValues>
            -5.6191432476043701e-01 6.3395112752914429e-01</leafValues></_>
        <_>
          <internalNodes>
            0 -1 14 -2.8019634191878140e-04</internalNodes>
          <leafValues>
            6.2668573856353760e-01 -6.7102372646331787e-01</leafValues></_>
        <_>
          <internalNodes>
            0 -1 11 7.3934138526965398e-06</internalNodes>
          <leafValues>
            -3.3567973971366882e-01 9.3522679805755615e-01</leafValues></_></weakClassifiers></_>
    <!-- stage 3 -->
    <_>
      <maxWeakCount>8</maxWeakCount>
      <stageThreshold>-1.7982517480850220e+00</stageThreshold>
      <weakClassifiers>
        <_>
          <internalNodes>
            0 -1 19 7.5309206731617451e-03</internalNodes>
          <leafValues>
            -7.3514848947525024e-01 7.4631828069686890e-01</leafValues></_>
        <_>
          <internalNodes>
            0 -1 16 -1.7432264939998277e-05</internalNodes>
          <leafValues>
            9.1906380653381348e-01 -4.3416482210159302e-01</leafValues></_>
        <_>
          <internalNodes>
            0 -1 16 1.9538707419997081e-05</internalNodes>
          <leafValues>
            -4.1877388954162598e-01 7.8127014636993408e-01</leafValues></_>
        <_>
          <internalNodes>
            0 -1 12 7.6302712841425091e-06</internalNodes>
          <leafValues>
            -2.7611929178237915e-01 7.9947566986083984e-01</leafValues></_>
        <_>
          <internalNodes>
            0 -1 5 -7.1825315899332054e-06</internalNodes>
          <leafValues>
            6.2369215488433838e-01 -3.8324972987174988e-01</leafValues></_>
        <_>
          <internalNodes>
            0 -1 10 -1.5393703506560996e-05</internalNodes>
          <leafValues>
            7.3983019590377808e-01 -3.1014019250869751e-01</leafValues></_>
        <_>
          <internalNodes>
            0 -1 9 7.3934138526965398e-06</internalNodes>
          <leafValues>
            -2.4066802859306335e-01 8.8532841205596924e-01</leafValues></_>
        <_>
          <internalNodes>
            0 -1 6 5.2225484978407621e-05</internalNodes>
          <leafValues>
            -3.5321584343910217e-01 6.7353361845016479e-01</leafValues></_></weakClassifiers></_></stages>
  <features>
    <_>
      <rects>
        <_>
          0 0 48 2 -1.</_>
        <_>
          0 1 48 1 2.</_></rects>
      <tilted>0</tilted></_>
    <_>
      <rects>
        <_>
          0 3 9 26 -1.</_>
        <_>
          3 3 3 26 3.</_></rects>
      <tilted>0</tilted></_>
    <_>
      <rects>
        <_>
          0 7 2 17 -1.</_>
        <_>
          1 7 1 17 2.</_></rects>
      <tilted>0</tilted></_>
    <_>
      <rects>
        <_>
          0 24 24 3 -1.</_>
        <_>
          12 24 12 3 2.</_></rects>
      <tilted>0</tilted></_>
    <_>
      <rects>
        <_>
          0 26 15 6 -1.</_>
        <_>
          0 29 15 3 2.</_></rects>
      <tilted>0</tilted></_>
    <_>
      <rects>
        <_>
          1 2 2 12 -1.</_>
        <_>
          2 2 1 12 2.</_></rects>
      <tilted>0</tilted></_>
    <_>
      <rects>
        <_>
          6 28 3 4 -1.</_>
        <_>
          6 30 3 2 2.</_></rects>
      <tilted>0</tilted></_>
    <_>
      <rects>
        <_>
          6 28 36 4 -1.</_>
        <_>
          6 30 36 2 2.</_></rects>
      <tilted>0</tilted></_>
    <_>
      <rects>
        <_>
          7 0 24 6 -1.</_>
        <_>
          7 3 24 3 2.</_></rects>
      <tilted>0</tilted></_>
    <_>
      <rects>
        <_>
          13 3 2 4 -1.</_>
        <_>
          13 5 2 2 2.</_></rects>
      <tilted>0</tilted></_>
    <_>
      <rects>
        <_>
          16 20 4 3 -1.</_>
        <_>
          18 20 2 3 2.</_></rects>
      <tilted>0</tilted></_>
    <_>
      <rects>
        <_>
          17 3 1 6 -1.</_>
        <_>
          17 6 1 3 2.</_></rects>
      <tilted>0</tilted></_>
    <_>
      <rects>
        <_>
          18 13 1 6 -1.</_>
        <_>
          18 16 1 3 2.</_></rects>
      <tilted>0</tilted></_>
    <_>
      <rects>
        <_>
          19 10 6 8 -1.</_>
        <_>
          19 14 6 4 2.</_></rects>
      <tilted>0</tilted></_>
    <_>
      <rects>
        <_>
          24 0 1 18 -1.</_>
        <_>
          24 9 1 9 2.</_></rects>
      <tilted>0</tilted></_>
    <_>
      <rects>
        <_>
          24 16 24 16 -1.</_>
        <_>
          36 16 12 16 2.</_></rects>
      <tilted>0</tilted></_>
    <_>
      <rects>
        <_>
          25 25 2 3 -1.</_>
        <_>
          26 25 1 3 2.</_></rects>
      <tilted>0</tilted></_>
    <_>
      <rects>
        <_>
          28 20 1 12 -1.</_>
        <_>
          28 26 1 6 2.</_></rects>
      <tilted>0</tilted></_>
    <_>
      <rects>
        <_>
          36 2 1 12 -1.</_>
        <_>
          36 8 1 6 2.</_></rects>
      <tilted>0</tilted></_>
    <_>
      <rects>
        <_>
          44 3 4 26 -1.</_>
        <_>
          46 3 2 26 2.</_></rects>
      <tilted>0</tilted></_>
    <_>
      <rects>
        <_>
          46 2 2 23 -1.</_>
        <_>
          47 2 1 23 2.</_></rects>
      <tilted>0</tilted></_></features></cascade>
</opencv_storage>
